digraph Tree {
node [shape=box] ;
0 [label="X[8] <= 0.0\ngini = 0.029\nsamples = 10000\nvalue = [148, 9852]"] ;
1 [label="X[26] <= 0.5\ngini = 0.016\nsamples = 9933\nvalue = [81, 9852]"] ;
0 -> 1 [labeldistance=2.5, labelangle=45, headlabel="True"] ;
2 [label="gini = 0.0\nsamples = 9582\nvalue = [0, 9582]"] ;
1 -> 2 ;
3 [label="X[24] <= 0.5\ngini = 0.355\nsamples = 351\nvalue = [81, 270]"] ;
1 -> 3 ;
4 [label="gini = 0.0\nsamples = 267\nvalue = [0, 267]"] ;
3 -> 4 ;
5 [label="X[25] <= 0.5\ngini = 0.069\nsamples = 84\nvalue = [81, 3]"] ;
3 -> 5 ;
6 [label="gini = 0.0\nsamples = 81\nvalue = [81, 0]"] ;
5 -> 6 ;
7 [label="gini = 0.0\nsamples = 3\nvalue = [0, 3]"] ;
5 -> 7 ;
8 [label="gini = 0.0\nsamples = 67\nvalue = [67, 0]"] ;
0 -> 8 [labeldistance=2.5, labelangle=-45, headlabel="False"] ;
}
