digraph Tree {
node [shape=box] ;
0 [label="X[26] <= 0.5\ngini = 0.079\nsamples = 10000\nvalue = [412, 9588]"] ;
1 [label="gini = 0.0\nsamples = 9582\nvalue = [0, 9582]"] ;
0 -> 1 [labeldistance=2.5, labelangle=45, headlabel="True"] ;
2 [label="X[15] <= 0.068\ngini = 0.028\nsamples = 418\nvalue = [412, 6]"] ;
0 -> 2 [labeldistance=2.5, labelangle=-45, headlabel="False"] ;
3 [label="gini = 0.0\nsamples = 406\nvalue = [406, 0]"] ;
2 -> 3 ;
4 [label="X[2] <= 0.003\ngini = 0.5\nsamples = 12\nvalue = [6, 6]"] ;
2 -> 4 ;
5 [label="gini = 0.0\nsamples = 6\nvalue = [0, 6]"] ;
4 -> 5 ;
6 [label="gini = 0.0\nsamples = 6\nvalue = [6, 0]"] ;
4 -> 6 ;
}
